-1.745805740356445312e-01 8.647929131984710693e-02 3.197773098945617676e-01 5.618648529052734375e-01 5.714291334152221680e-02
-5.751211047172546387e-01 -3.085905611515045166e-01 -6.767697632312774658e-02 7.115598917007446289e-01 -3.838751912117004395e-01
-6.000252366065979004e-01 -1.261837184429168701e-01 -2.929379642009735107e-01 -4.522489849478006363e-03 -2.270166873931884766e-01
1.133397873491048813e-02 -1.126321479678153992e-01 -5.884228944778442383e-01 -8.595555275678634644e-02 -1.413723826408386230e-02
-5.177428722381591797e-01 2.233936935663223267e-01 4.740289971232414246e-02 5.724591612815856934e-01 -9.381943941116333008e-01
-8.918002247810363770e-01 9.017315506935119629e-02 1.470875144004821777e-01 3.114362806081771851e-02 -8.292302489280700684e-01
4.553045630455017090e-01 4.127995967864990234e-01 3.929244577884674072e-01 -2.978254556655883789e-01 1.464353948831558228e-01
4.510689377784729004e-01 -5.087305903434753418e-01 -2.781608402729034424e-01 -7.181404232978820801e-01 1.018642112612724304e-01
-3.484186530113220215e-01 4.872271716594696045e-01 -3.202656805515289307e-01 -5.615770220756530762e-01 6.604107618331909180e-01
1.173868402838706970e-01 6.487133353948593140e-02 4.072460532188415527e-01 1.284162998199462891e-01 3.456388711929321289e-01
-7.182216644287109375e-02 -7.180283665657043457e-01 2.491576969623565674e-01 2.528679668903350830e-01 -4.014882147312164307e-01

1.538127847015857697e-02
4.826748743653297424e-03
0.000000000000000000e+00
1.931059407070279121e-03
2.414950402453541756e-03

5.193725824356079102e-01 -4.299294650554656982e-01 -2.669359445571899414e-01 -5.514578223228454590e-01 -3.596372306346893311e-01
8.420477807521820068e-02 6.486923098564147949e-01 2.799462974071502686e-01 7.284823060035705566e-02 2.732294499874114990e-01
4.536525011062622070e-01 -4.910372793674468994e-01 4.093090295791625977e-01 -2.627683281898498535e-01 -4.500499665737152100e-01
-4.229176938533782959e-01 -1.495132297277450562e-01 -6.086028814315795898e-01 -6.325983405113220215e-01 -3.441984057426452637e-01
-6.184576749801635742e-01 3.305651247501373291e-01 5.378748774528503418e-01 -5.494574904441833496e-01 -2.562716305255889893e-01

1.493313349783420563e-02
9.407721809111535549e-04
-8.647742681205272675e-03
1.425790414214134216e-02
-1.366089843213558197e-02

-7.562997937202453613e-01 -6.915650367736816406e-01 6.251328587532043457e-01 -3.217090666294097900e-02 3.836070299148559570e-01
5.353000164031982422e-01 5.317825675010681152e-01 -1.371431862935423851e-04 3.247011005878448486e-01 -7.425919771194458008e-01
-8.974110335111618042e-02 -3.254142105579376221e-01 5.422881841659545898e-01 7.334949970245361328e-01 3.735707998275756836e-01
-4.088072180747985840e-01 4.294389486312866211e-02 1.908230036497116089e-01 3.383843302726745605e-01 4.892998933792114258e-01
-4.580471217632293701e-01 1.711695641279220581e-01 4.967043697834014893e-01 7.444871664047241211e-01 5.337117910385131836e-01

1.457623671740293503e-02
2.953544724732637405e-03
1.475424319505691528e-02
-1.544111035764217377e-02
1.453998871147632599e-02

-2.158637531101703644e-02 -6.031162738800048828e-01 1.022832170128822327e-01 3.596147000789642334e-01 3.752849996089935303e-01
-5.695452094078063965e-01 1.717720031738281250e-01 2.056840509176254272e-01 4.841082915663719177e-02 -1.754697412252426147e-01
3.715834617614746094e-01 -6.928102970123291016e-01 7.827723026275634766e-01 7.494548559188842773e-01 2.015221714973449707e-01
6.332016587257385254e-01 -7.237640023231506348e-01 -4.929148256778717041e-01 -3.444768786430358887e-01 1.387594491243362427e-01
5.995618551969528198e-02 -8.074337244033813477e-02 1.120055913925170898e-01 2.942280471324920654e-01 -2.989197373390197754e-01

1.162312459200620651e-02
0.000000000000000000e+00
1.464186795055866241e-02
1.486787013709545135e-02
-2.792579354718327522e-03

-1.308321356773376465e-01 4.130778014659881592e-01 4.569106400012969971e-01 4.759571850299835205e-01 -1.227764785289764404e-01
7.718709707260131836e-01 6.725794076919555664e-02 -3.447346389293670654e-01 -5.837402343750000000e-01 -2.018854618072509766e-01
-2.429268956184387207e-01 -3.843928873538970947e-01 6.159679293632507324e-01 -2.064830511808395386e-01 -5.640563964843750000e-01
-3.026353716850280762e-01 -5.047728419303894043e-01 5.450856089591979980e-01 -3.703574463725090027e-02 -4.710293188691139221e-02
-3.734278976917266846e-01 -7.045624256134033203e-01 2.123776227235794067e-01 3.084267377853393555e-01 2.962590754032135010e-01

0.000000000000000000e+00
1.311594340950250626e-02
1.484872307628393173e-02
-1.367785502225160599e-02
1.479629334062337875e-02

3.076019287109375000e-01 6.604263782501220703e-01 -6.055254340171813965e-01 -2.738671302795410156e-01 3.310447931289672852e-01
-1.843470931053161621e-01 -4.128777086734771729e-01 4.482234716415405273e-01 -1.915591508150100708e-01 2.138239890336990356e-02
1.382109075784683228e-01 6.524546742439270020e-01 7.504403591156005859e-01 5.582669004797935486e-02 6.041414290666580200e-02
-6.533769965171813965e-01 5.063763856887817383e-01 -4.405633211135864258e-01 5.104718804359436035e-01 4.777728021144866943e-02
3.175846338272094727e-01 3.198226690292358398e-01 4.841054379940032959e-01 1.162415742874145508e-01 1.773870140314102173e-01

-1.383549161255359650e-02
1.488032378256320953e-02
1.486558467149734497e-02
-1.372780557721853256e-02
-1.349588483572006226e-02

-4.009692966938018799e-01
2.914310097694396973e-01
5.840420126914978027e-01
-6.298091411590576172e-01
-9.823300838470458984e-01

1.491821371018886566e-02

